{"Layers":[64,14,8],"Guid":"f6e4d01b-9633-49f4-ae86-ead56721c166","Weights":[[[3.2659094013642056,-0.41235815254197583,2.1545862214295473,-1.4671327819011641,0.14923735408284877,-1.5524747660918108,1.1732192759611047,0.19186978904002489,-1.4892006959077002,3.9449994662423631,10.257063378837351,1.164867992440827,-1.8588626518214795,-0.337488658770803,1.7133677619115277,0.063279677553575914,-0.1227680333713612,-0.48380381099884667,0.061690396635719513,1.2771517370665346,1.4573573036789811,0.58550717204778091,0.87119939865058738,3.5769896593968595,-18.933264891369028,1.6210248505191292,-0.23076163860174714,4.0348795962811987,0.0014389831583700649,0.057785276326457413,-3.2132093862659157,-0.69563069589752824,0.78399937677913023,2.4183653501402618,-0.56366745519006778,-0.22277878622314273,-0.12716748869745545,-0.17116832516008479,0.54703470802747067,0.93513993559168918,-0.6468184118342154,0.50327468946595122,12.234453525087758,-0.68358606877767891,0.84586217145688725,0.059764244621331779,1.0598201914327263,0.075413473086594962,1.071208275153255,-0.1872068600575359,-4.2148192160200848,0.91802723058204772,-1.1751722796013344,4.4019145521068355,2.1330134800839708,-0.049995878264692928,2.629662103030999,0.028569156200188874,-0.29614506478009706,1.8365757795274036,-1.0222340993691834,0.68410957405830752,0.00045373754175339389,0.13171014118723806],[0.56414877837891875,-1.4953475221793107,-0.0021694729500720822,-0.35737667655005251,1.486689677007643,-2.5646734476032758,0.12237225596660421,1.3709602038624991,-1.0337301527134117,0.31965002884147586,-1.360185616488613,2.2843478792927097,-0.38307432736608105,-8.3784126497814739,0.92018580069259293,-0.97406180315541124,-0.74099628899059111,-0.4107714928162064,-0.20169463791160452,2.3286651234369722,0.65519342641958189,-1.0321679963745885,-1.8120027214876806,1.0054645122572203,2.622530429815336,0.43368887679268997,0.25020324618311324,3.9414923586653812,-5.2623282615279123,0.69636705685087108,0.71558771028249657,2.271004547599722,0.12307658126418355,0.1472549918577363,-1.6305961796099822,-0.57034717887905639,0.11774650995384095,-0.051496339548086661,-0.48576053799843055,-1.3895685880633559,-0.45313285020339145,0.13881319040030557,-0.63258006640002951,-1.8568824466173854,-0.955293856238434,1.9921631745513215,-0.44072790545320989,-0.56628339447103371,1.2459050291170111,0.18636648864989261,2.3926152568043988,-0.80885394828894941,0.94211846996043869,-0.713307069835353,0.18539581141637385,3.4190745405488339,-4.0023884691593334,-0.030782080546148123,-2.4081851565243735,0.16932002225799442,-1.5458862229798216,2.1553460160724907,0.12125766936466065,-1.055290335690485],[0.73845159902175428,-2.882437308838016,3.50112622084615,-3.7881558131144062,2.3524666198458819,-18.635005281201554,-0.84187617813616156,-4.5015755001363242,2.122839136252491,0.0015931938075203907,2.4249320321479924,-0.2276690039596346,-0.044023812915269439,0.78504064452720423,4.4795239517198659,1.5154093333862089,-0.15604157044554012,-5.3579896391843693,-0.24958485260909047,2.1260853498739496,-0.97900001661111524,-1.3796727663810828,0.55228760510551056,3.8072027988992971,6.5433234049901126,-0.18798924782417481,-0.091835261907057847,4.8753175771099793,-0.19998584870956171,1.9129229216472452,0.11082149491526318,-0.3680729778309581,0.4541178502870245,-0.22090507767105452,0.43080262367742161,-0.22035130593967728,-0.038907154881108852,-0.62962570177667643,-1.045559672837622,-1.0503194839091556,-0.31381718514633761,-0.030197846237955177,-4.9233354378166263,0.69852049914002257,0.068173276981380135,-0.73438336678868743,1.6528375282169181,-0.015130736688815939,0.034644363943197504,7.3747546640572637,-3.8267225351333076,-0.11601914308494747,6.78342967305094,-0.92082636366808324,0.94156578851975237,-0.028509998743565967,-2.64988326181495,0.62409226015995478,0.49736521273581136,-0.096314174299139257,0.83177649090884076,0.22835030055562228,10.536262274551957,0.80088291535909062],[-2.1007949629395011,-0.057741144927180625,-0.84353374913033941,-2.4000746379923346,-4.0040098345805726,3.5003543845229323,1.4677780973987775,0.88699706837596759,-0.52560412801128054,1.0697035063127323,0.20942200001162664,-0.49742924724604765,-0.02721465813874957,-0.051387650031976422,-0.77557697604583953,0.25598079283507491,1.49971305191307,0.28937417967466561,0.55550025146752968,-0.74904557795537763,-2.0064772944467379,-0.55360739689084115,-3.1084420363363585,-1.4426610956652626,-3.2227676958080993,1.7925074427260364,4.185787106575054,6.2525942559087682,-0.007141110947543273,-2.7049430516926787,0.1591843272191254,-0.91792709892522129,-1.0571328186170605,2.8358682874681058,-0.36852001997200684,1.6971484469603615,-0.86366632145427991,0.18239463615493756,1.8456035659954795,-0.019441908135864758,0.313339191866814,1.7970257313520852,0.21074845099586298,-1.377984931113275,0.79045372503298028,7.69659004552264,3.1677529675622007,-2.4147275623289093,-1.0706197368755286,2.7140215413552271,-0.85923384581372142,1.0245074406325341,0.27427108383805587,-3.1863157673911706,0.10710171384248401,-0.0672256443736269,-0.32753660435525322,1.6955650804964186,-1.4442460211890342,-0.24038270608408735,1.0846401162830059,0.17581628828194651,0.29040410408793083,0.35494583972663918],[1.2857858612687967,0.785550390689123,0.98660552819994574,-0.80328363694349991,1.0879575570609346,-0.27785516804719756,0.8451256770512654,1.421145768605264,0.599206816198332,1.2579132720649313,-1.3751817231104075,-0.2942253210839792,0.43678763389631531,0.842694867398156,-0.18995017136930889,2.9745438770502428,0.35849666700235783,6.0235993945313657,-0.0043004846895874343,-0.20913929608403015,1.9383209129689982,2.4009153095127096,0.029833519189742152,1.3548082145142035,0.92961909926860087,-0.039955445224817726,0.84571746356712607,-2.6149693203547577,0.27207297866101493,-0.73928579343003009,0.074548592206019282,-0.36504095752703547,0.56962949689400733,0.016256822170421216,14.576219707252601,3.3558914215410209,3.6955926827498526,2.24516903939827,-8.4890788420046981,1.2240223926461025,-1.4477424831672,-0.70122087590858961,1.0866463708344418,2.6474736264701617,0.58998076831470647,3.8912212102447592,-1.0570921310937504,0.46322292692525269,-0.045018240598394779,1.308713443171289,0.55520800234439271,-2.3033021915123615,0.79817860572217425,0.39265373942579351,-0.74457508877417933,-0.87098013544502684,-0.060940346873719048,0.43139239117974293,0.036973515417591196,-0.38006605714830449,0.28926107985604305,0.24196569675945986,-1.3841285928038096,0.91008398368983356],[-0.71999569657576523,0.14834495690866595,0.66603003460805887,-3.3974953881365821,0.26694063588194294,2.0288921277347165,0.78054937598685836,0.26266882702038197,2.92262822024015,-0.86444755301070253,-0.70090125339028209,1.7202049011911045,1.5455942054932264,0.13059256790967971,-7.56557218552226,-0.2526660656120962,-0.4942593551386173,3.6229195638511236,-1.0451105660386439,0.64238707315168242,0.75705866276604106,-0.48096790746147877,-1.9638077402743568,0.15536073591111241,2.2934459992307752,-0.23088274952833296,1.05801740358879,-1.5113822336291043,0.32207195793112453,0.62692412229106032,0.87100228323068052,5.7063593551195373,-0.38018542479192485,0.55506505105964721,0.029986019537964342,-0.4565518736374734,-0.22243823247490091,0.10876649876370853,-0.959262891116765,1.02709640712612,-0.5762281213007574,-0.62254894153585794,0.065451632103485535,-1.9032528892808445,-0.47124270343919195,-0.19723082870481068,-0.28876599413641507,-15.475989023207609,-0.33498319405930577,-0.676118014424411,0.058421792458180931,-1.7328702010016062,0.18772559755232315,0.52474604681062786,-0.01433118740539484,2.1220543532385023,-0.41818293653495314,-5.20569346430461,-1.6136898589707338,0.77996151566334027,1.5668371520162499,0.075142861975810549,-0.014166553968989096,0.73017253020493067],[0.55106837904648986,0.29898372034979676,1.8105473531700191,0.15528047800721653,6.2104688159839032,-0.98306784473475251,-1.744852167318893,0.40555772372201437,2.7946565821675118,-6.4616438902483351,-1.677377215818753,0.70600703214610216,3.6570861252230467,0.087162422160166064,1.8130858372592824,0.044058320350316107,5.7393083228369939,-0.74857586186289371,1.7388691896939568,0.10875071398255627,-3.2072542877868875,3.6946788203349943,0.82154044038558538,1.6513680336134584,-0.53648068669557036,0.13680819319355209,-2.2987986029821488,-1.6844397697524407,1.627086804224958,-3.2634093083058549,-0.785131582549264,-1.8019608834744556,0.60513166127017581,2.3745223097915096,-4.0887927351671332,5.0713958030656174,0.65352569146749151,59.589662865165543,-0.37679207488383404,3.661582509591057,6.3884829302070116,-0.12240215765861007,-1.6968770321568314,-0.74172037677550251,0.018895606437105084,3.5552625689160009,-0.32716802005694134,0.64753412942854294,2.7113853338041149,0.45924610440446,-5.1616204229964939,-0.028123129708050969,-0.48673441065007367,-9.8171783546868046,-2.1240069982168155,-0.24506992203982117,0.017143717213067577,-0.78545715665631022,3.6282147302202912,1.6300440954638698,-1.3142148896801107,0.62664328252598667,2.2964454903553957,0.13687192005431217],[1.6329089892218174,-3.2715307570675547,-7.4536342218972633,2.5943025463466953,-0.631769230399315,-1.5025283277648796,1.2716686070008683,-2.5983284897926944,-0.0888254486359009,0.46849209542644737,0.12152253950401375,-2.7713199502395152,-1.0801785066444982,-3.660954690723619,-1.0121196701841577,0.84694927784233076,0.59394339373843918,-1.1112097759522883,1.4574757002648124,-0.64607436404493979,-1.0293419781738533,-0.0017087668187007776,-0.10231560401262199,-1.3952129863808698,-4.0740325725846658,-0.041388356459721345,-0.57993731097558965,0.4886329181363932,14.128077205742423,1.2274931138828706,-1.914123612657805,-0.58513896688408629,2.4384428433678869,0.62873929895993574,1.0188703064704616,-0.50911108202217714,0.25774164665821825,-1.6085858355810183,-0.46975997998498448,3.1408243744762276,-0.48121685068576303,-1.8428393720892258,-0.18722408985939715,0.39408620387040472,-0.23936898890188896,0.33055980256614614,0.076800468464012117,-0.92014502485759531,0.39666402922187483,1.3571480659827451,-1.0336060998585239,-0.77195820433998785,1.1756398526598444,-0.033760419928293608,1.8569605794085538,0.21201347663603029,-1.0650803176225803,-0.063442848235725213,1.1276149991348832,-0.85511998151029833,-1.0744518517075814,-0.6422702535140743,0.35576316360762028,-1.9366334010008464],[2.5761570016566315,-0.051219417056098934,0.31344907530485189,-1.298714588463403,-2.9641887295936682,-0.41958974995062742,-4.2299876704985255,0.9529398292937129,-4.8421670592827333,-1.6162935024798975,0.09858621898993658,-2.8612487689606994,-0.29487107806295604,-0.59594219245928681,0.17361659488984987,-3.453723803364718,-2.9085625843336924,-0.049022684171564745,0.10058932726331304,0.12862466950268642,2.7802439446108846,0.13619976711016554,1.4687436298729439,-0.33452460703840187,-0.258054714208964,-0.93108997998710019,1.1117479809771294,0.034543679497785106,0.24725599902101661,-6.1640151399924479,-0.39653024354015581,0.5379255657392068,1.2956674523972285,-0.56727235884478533,0.19797357314056824,-0.544215773787215,1.1785569342827729,-2.3047603346080292,-3.8824421431159752,0.59019732992867935,0.0065077938486993005,2.8840380181296119,33.034926583321756,-4.0366719036206522,0.67719309234361791,1.7155964347715176,3.8093659004908949,0.18034150038204946,-0.34300169131345848,0.50695436171292962,-0.77944895371705891,1.303482562019709,-0.32835303939521376,2.7390873889123135,0.39053862743691442,2.1148807190232874,0.11692304717287945,1.611171063756522,0.7327576729529135,-1.1852274286616251,-0.21701847199232571,-0.63743702676047209,1.5492792876720587,-0.17281230952778048],[0.19794478386952707,-0.14995290020885357,-0.060807692605593489,0.025119101210648587,0.24715581160330383,-0.92159456987121569,-0.0702872723936372,1.6744469247869571,2.2890636376498552,-1.1155655916120355,-0.0387727222598051,0.643407504945087,2.1581963682129635,-0.64831427213388237,-1.1753871285608857,3.7289001699840032,1.0126010144923345,1.5235322698166876,-1.0423123931608418,0.36302211470943357,-1.107461981454803,-2.3108354797499384,0.060533890198737159,1.8764629639653299,0.0968493354655,-0.59576586896691386,-0.21934976247764942,-1.5013584650112151,0.11057957229814139,-0.9445823150327608,-0.59431174702301881,0.29578228970947429,0.39816322725034803,0.37945691383876973,0.40630619789306371,0.99961749486489548,-0.19742339392875205,-1.8580943176409477,3.8274021557799065,1.1245710721109097,-2.1808814887424792,3.8625223554840411,-1.1624907334112964,3.1369956070973695,1.6853353557808095,-0.61987395945639578,1.5532261719569096,-1.1648015872312034,-0.33979336110719149,0.0056963937181537493,-0.46668998915036125,-1.1015374707470143,0.59867466823804782,0.3775202643151595,-0.74055866456056352,-1.0033346929125404,0.7672885011057764,1.3414038624409881,0.97318956726143313,-0.40723681143352813,3.6085003489673468,22.521904054567607,-0.71827023021401359,0.75120103712298336],[1.078077357976492,-34.796526242650984,-0.58408654348363021,0.078127608080172731,0.85117729120068386,2.0500272159355521,-1.2239860691217723,1.1928492606097807,1.1109708447084827,-0.23706294816166329,-5.8678318122444644,3.1907939125851561,-1.3535821266455628,3.711904689546544,-0.89819969949095324,-0.54212904132041573,-0.084757409943214249,0.78208956153481735,0.40374433231385187,0.83717563342173562,-0.33387340917910824,0.28584790910593416,1.2979269316015794,-0.96803535074552149,4.4330569631340726,-1.4987195711242081,0.84115078712566682,-0.13078421198702095,0.48442565180960395,-1.2541162603416975,-0.78915255984970689,0.86891454392200829,0.461983586024607,-1.1924292243135357,0.041443182730570252,-1.0218000677490033,-0.63906737391344826,-0.23400395487752326,-0.085784782104641077,1.4709860889852429,-0.08999470434928597,0.64585980363922968,-0.0358316003925529,3.7527215589478939,-0.14098456201640552,1.5920468172720037,-0.031048122561481595,-3.490499260827955,1.0014650312064022,0.96732331284717921,2.4623642639235896,1.8898822496459615,-0.91059337106093163,-0.3005341359262913,10.552754669658508,-1.9849249557212354,0.63354713061868939,0.3053592928519886,-1.6280655746766932,-0.58763371693100264,4.3277259108407726,1.0071001717865427,-0.73874219016469567,-0.1430950079446128],[-0.052306346778903383,-0.50390824572719262,-0.11641685232122385,-3.660412613233059,-4.54677296551054,0.2783884235764526,-1.4930378031537854,-0.607493805359311,0.8479206972251,1.6620066156427573,0.029833487748705045,3.7381263106532403,-7.3740283697926756,-0.45183042753068881,1.0434515196496874,-0.2814017962149169,-1.0934702145757422,-0.25170654779707374,-1.0920856426960479,-0.10129923936403505,2.2730735473873431,-4.8542861629334872,1.432802570246313,-0.028719138533479682,-0.13423917268579133,0.60884245325394293,1.0984182051236007,-0.61595814458835663,6.7026352925226558,-0.68339310005257037,0.64305903160166566,-4.0108724864912482,-0.44630617153472163,-4.7786624361909436,0.27109642811579565,-2.6286132267051046,0.044943482121225488,-0.7558774573817193,1.7286772516705258,0.12121934039708211,0.0099024765534906928,1.1911189174831909,-0.16970692506337398,-0.88525706274904525,0.78729392760214878,-0.14748699850632444,-0.11982077466411159,1.2904021816400157,0.28281006339574377,-1.3500878291020952,0.23360367002005922,2.4424557414146744,-5.800865296201188,0.107130633034975,-0.36649855686410548,-0.10764588172119638,-1.7687366807141325,0.78277542782374188,1.9259755686080569,1.1342466014982315,-1.0236965226580983,-0.96321686098951176,5.3651713592727965,-1.8670295959824785],[-1.6117454217567295,4.2869631991386319,9.08450935529962,-0.53577873864866044,0.050625364424487534,-0.628500580104764,-1.4119395929374117,-0.065007169906247386,-0.841245781376464,1.3903889959490725,3.5222363791584561,-1.8374348509018286,0.58001156326072933,0.3935961614305461,-1.1907556843139977,-0.4750762554284248,-1.3527682378351891,0.3566011780784995,0.30538754079692232,-0.070498987732291657,-0.04760909012017861,0.74204437093374975,-0.808037305325899,0.764109274226445,-0.0952824575311817,0.92617471067875634,1.0430778640580725,-8.7068688002082233,-2.7210371803880014,0.65963270386710937,-1.80416452766851,0.43489632768665842,-0.19044239369802379,-0.17716425286995208,-0.46709444323028038,7.7127341763679187,-0.38093081353952268,0.42275333534257076,-0.088506718463353826,-2.9140600626239239,-2.7248988239519236,-0.34848637193292642,2.0871888671335381,-0.34404954274207794,-0.094840341005370546,-7.4802493961205716,6.05603734424682,-0.064651810715438365,-0.96436694565756953,-3.52249318395572,0.46922753062815276,0.45004169274742128,0.18758073291036437,45.743460380495314,-3.7556434251593789,0.52517534930833354,-0.28910086740915625,2.1216267609138257,-0.63633751964139662,0.16509363796819437,-0.324159168060724,1.0163959452504909,1.0502680680892205,0.29209628119860043],[-0.97616345939508586,0.71612478126904389,-6.2565927138664739,-0.021334287452334177,-0.56693972128715076,0.23203434441442777,2.2430063883076894,4.0367390613326,0.57925345591199862,-2.7365964080598104,-0.14045697126293777,3.0818425405561856,-0.24093146248381758,-0.73668698678039535,-1.215122481391838,0.60957681313630419,-0.63130555441785174,0.5730247394986151,-2.5241337444979637,-0.67911729183530145,-1.034935181911375,-1.1096076217158206,0.28610083592956215,-1.0734773005895375,0.63181919841635625,1.0249451800972722,-0.28709645563603825,0.057545320068388091,11.966568936418302,-1.5520911102785893,4.489819689286854,1.1294943296776094,-0.033068811933658529,-1.1845771970380867,-4.6473312243117242,0.728194467174805,0.13166469744670228,-0.784949542597927,1.1181003728624324,0.013100810997656153,-1.0720032888357469,1.3098338170847248,-0.11572055096999868,-0.19445638274232668,0.93410395982497718,-0.28915078155767837,0.0719763635225733,-0.99730167894292376,-0.43853830383517606,-3.0788604803884532,-8.3598774472991852,-1.4290144136197363,-1.7271594183853329,-1.8639763622897929,-1.33630917762778,0.95235069086108093,1.6918408869110195,0.010340107345142915,-0.0018921374694676474,2.5541708107910024,-3.7150342975973878,0.22564386665123626,-0.1127383417852201,-0.51056691498302653]],[[0.4091389408775597,-0.36920887909789757,-0.5009763049317002,0.40673187966146346,0.55137174373862863,0.24375354348489103,0.77030889037371775,-15.408728619562528,6.3609016961657838,-0.6032238850280911,-2.5841448682249832,-1.1703596937804535,1.1388453037293074,-0.33870152849168278],[-6.0094606331495442,0.49758136518036317,-0.77691841204343126,-0.26470076873781395,0.67803264869076674,-0.45537546673940821,0.79210894705634394,2.4492586809934576,0.87424045488777058,9.7239863694127777,0.87092296098817923,4.40202764071016,0.70810583227811785,0.53451355027592429],[0.45193542219888627,-1.1467935584378106,-4.223451803360164,0.48705598611493539,3.0328079080554593,-0.88003042384121122,2.4856707105623932,0.941731005264,30.097068250049727,-2.2835058170670655,1.0799230537932134,-1.0944336429719965,0.34968912991108003,-0.18796211467336277],[-2.6650303587701103,-2.4922609747714608,-1.5298079162543266,-0.4328435069852497,0.634368962518085,-0.67330250325033014,5.8907423128118639,-0.70431768308883813,-1.2518586173466246,1.7030263909608085,-4.6507870014325805,1.4698445960142066,1.3357608980650739,-0.63731353617723618],[-1.5021123960092671,0.13133008197406493,0.5309870125033489,-0.040155719944001605,-1.082036862661335,5.64998069444712,1.5377097467760077,0.0658482720670952,0.69940058002483929,0.25141444386398565,0.37971712156651949,0.9688421658507087,-0.01902404099707513,0.1374075814281468],[0.040206876885961279,1.630211078646546,0.32648929266943705,1.2999107842847528,0.42989656164838119,0.096468475452203842,0.0041725951435999066,-0.11532319596400981,-7.7611194248961066,1.1688646309211008,-1.7066032070892105,0.87926042478652366,0.12856534781879661,2.5865130844127915],[6.4855613061519533,-0.16679279122625332,-1.4383660700025678,-3.0963339328439945,2.7603322072373819,0.36725757555131422,-0.021996119425963911,1.7661040111382369,3.6061821320281418,0.31340868559248009,-0.25560694726148447,-2.3605054515642592,0.59509170949369838,1.2976148245349068],[-0.6143166642478044,-0.71265514266003938,1.6269697133276777,-5.9441764634021741,-7.1717802476104326,0.35221186652148778,-2.2724511037476232,0.2584346003057677,-0.028602028243846042,-1.5900074335199452,-4.2897589682853319,-0.30066466446254503,3.3326628656502595,0.18865293475477282]]]}