{"Layers":[64,14,8],"Guid":"53e05a39-2e20-427e-b171-82354b5ac607","Weights":[[[1.132676834458259,-0.41235815254197583,1.7432289443289173,-0.53546422563764806,0.47450763736505774,-0.36456583749609039,0.35705952448220524,1.5870372738519041,-0.76434556799159226,2.4050378407048063,10.410610549946496,1.3515347788926979,-3.0806884932831498,-0.0078269994750450253,1.221115104852895,0.039599228148285537,0.10050395292969747,-0.421905499765492,0.061690396635719513,1.3111795007247507,-0.28734019342843203,0.33279775193905986,0.87119939865058738,6.0528357826637453,-16.297682802124715,1.2890099676666671,-0.23076163860174714,2.0840973888930479,0.0014389831583700649,0.12654409021133792,-4.1990005050748405,-0.55957438114599611,-0.27701400527503506,1.7347973090939992,-0.6462791640117449,0.76489964474560312,-0.063588394681318383,-2.3940170511356693,0.574051581688211,0.19955160307667083,-0.087226292535062658,-0.26585573732554035,13.237281972935771,-0.62797136190703,0.79719962722543891,0.1543149131536237,0.6480366324587844,-0.824829275537232,-1.5306069958347224,1.2528682965237326,-4.4133049629319157,0.7607580512370915,-1.1751722796013344,3.4506944411394436,1.8433704296171358,-0.049995878264692928,0.99555977899225234,0.11045604624440431,-0.4659535579336051,1.3896093059541397,-0.65107538793263608,1.2950425159480159,0.0070946313844890471,0.492027160200683],[-0.35049965479725254,-0.65046614306702555,-0.0632438836601249,0.39455744744560794,0.8054860837828085,-2.8959499413989862,1.32192932902506,2.1963756441505993,-0.64654722829081845,-0.3581212953002999,-1.360185616488613,1.8898119892599228,-0.38307432736608105,-7.2205786809396066,1.4822893014016885,-1.1414043510239538,0.15749077639585019,-0.4107714928162064,-0.54629196280010317,1.6977498897637922,0.65519342641958189,-1.5684951447135205,-2.9348363903304309,0.4133700615573086,2.0567703893461298,0.3439777364514548,0.36348340743945751,3.9414923586653812,-2.6045589696192524,0.69636705685087108,-0.34722723970072883,1.4002073293569419,-0.25990453655431217,0.058271360939586604,-1.6305961796099822,-0.49432635024909849,0.088111837800591286,-0.055461520837478677,-0.50617146724893036,-1.2401852810808018,-0.45313285020339145,0.40362777130387639,-0.40917038435020847,-1.0176695187249478,-0.031652808961767379,5.6200704574210159,-0.36652489307826097,0.020130011708560491,0.85580032054238986,-0.40765936380554785,0.8891182457941057,-2.3271259872622823,3.0832749243720197,-0.37068558211046893,0.18539581141637385,3.2504462430035845,-4.1923336119639529,0.51165209371757181,-1.8470012011532417,0.9162009025183101,-1.2082251269277127,1.4381051088320369,-0.63173594353617835,-1.1219876544001231],[5.1550522677149626,-3.6283154873704255,1.9371662181647302,-4.6119808780789171,2.3524666198458819,-17.172585026506127,-1.1665764046095752,-4.5015755001363242,1.2274956705706774,0.0018207321330376003,0.4131811441384331,-1.4538883629498483,-0.38543777805849044,-0.31381316292997585,3.086713823486479,1.5154093333862089,-0.62829061109583617,-4.6340568978902965,-0.23716488981344364,2.9600505003841531,-0.79986144428927619,-3.098815620110793,0.68407144487496407,2.2866635373026969,6.5433234049901126,-0.67273098954628852,-0.09644680654937908,3.8337081324534612,-0.19998584870956171,1.0538542737545331,-0.11229549583311847,-0.77987145268990365,-0.34647268766053507,-0.22090507767105452,0.87800987218970794,-0.22748743026666321,-0.91871687526684,-1.3802298305350833,-0.83346799774421731,0.54399162983689464,-0.31381718514633761,-1.3474605230733012,-4.9233354378166263,1.5461157454307337,0.38214574554245839,-0.65510065321563238,2.4241178466090236,-0.574751667273731,-0.11442715390461673,6.9559571210178248,-4.3699979540776273,-2.1849468752703469,4.4603510683064833,-0.51370358450100662,0.82172702198969616,0.26162397544077876,-1.8163645608801406,-0.02230499893300399,0.17042122655563982,0.14874017437037612,0.83177649090884076,-0.0030459957301207396,10.529410793740658,0.37889138397211058],[-1.259000247226655,-0.12366841431914344,0.36760696943010573,-1.06886642600263,-4.5019882489232526,3.5003543845229323,1.1228717431735507,0.15082382430562524,0.015028555614107824,0.72059637245989872,-0.14196274959657318,-0.49742924724604765,0.63392174352065733,0.32479954485105067,-0.20807224354512865,0.92294374875253082,1.8926064665747742,-0.46612907323422736,-0.29214075590822963,-0.60628603150918869,-1.570000145589675,0.11712830487443526,-2.7109116131624997,0.58764330506482609,-1.7912374334662145,1.3837648062931822,2.441729260686583,6.046996502642151,-0.089221671559457233,-2.7049430516926787,-3.281522530983823,-1.2870296620118729,-1.0096434557950083,2.7087257004016441,-0.40523281969659597,1.2076392895944708,-0.10629188962932834,0.047510108673364693,1.8456035659954795,-0.9293745970578422,1.268312846685165,1.0199782150324177,0.082343815589313848,-1.377984931113275,0.32198443757074041,3.5557410534529019,3.1677529675622007,-0.75660946475957658,-0.74579011827773922,1.8573707550018892,-1.0530497496421152,0.37612385788259878,0.0031972843143664069,-3.684082862314574,-0.20323701083439175,-0.0672256443736269,-0.38312860137314719,0.77430003683388993,-0.017954457908040455,-0.31525497224744636,-0.64910382593570737,0.94041055080028935,-0.17082528496175442,0.501107952503836],[2.1987365426774321,0.52382348773809928,0.20597894741962308,-0.70620698758636513,0.62658670315560472,0.19860395137385956,0.4778084294429068,1.5275573332843406,0.44847258759069153,0.44867667302134373,-0.41356433064045678,-0.18883843754884228,3.5450628335749022,1.0263129489627965,-0.18995017136930889,0.7010252270848627,1.0751675353633137,6.4167328033372488,-0.077904032046637761,-1.4460090964074919,2.4989638816276556,5.7916122035596054,0.18055266762400418,0.61606531828017219,0.0991458291913958,-0.026753176683639506,-0.708543928145367,-2.3064249174670328,1.01270932777444,-0.53914514621233323,0.3957113200048743,-0.778315907020376,0.47650458007362784,-0.13788138572621472,17.409990245629132,3.5954298621333933,4.1214935103284231,1.5604691372341257,-4.7006870649032022,1.1102736459018623,-0.22122899434608256,-0.43709227291306751,0.051838080371067165,1.7845959857444669,0.051602972160897667,3.0901324134088592,-1.0474360239315781,0.14717236669714626,0.14448622306526882,1.308713443171289,0.028684789409676514,-1.6861199716227113,0.9859828455805042,0.078530404683584881,-1.3436284006804935,-1.3232787272388831,0.23332634889415624,0.84237022875477086,0.32687036318533852,-0.37768115545908632,0.31870537526240633,0.79347736405101277,-1.0685425190185307,3.0665527717771486],[-0.40235979202857858,0.14834495690866595,0.5884429507220833,-2.6819899137749164,0.26694063588194294,1.6245492738890395,0.55242043701024635,0.63574351358166226,6.3913130615640039,-0.19282752320751406,0.40633093593125097,1.9150601824336722,0.40509255509063591,0.32384508377320786,-6.453583969068438,-0.2526660656120962,-2.3530288329065119,4.4135153620411529,-0.12798324972525466,0.79216119294501464,-0.011404618144101583,0.18566113311346927,-1.3060890829178009,0.13132528536316232,0.91279915233071129,-0.23088274952833296,0.19221519783624741,-1.6344007401779819,0.219579991150783,0.62692412229106032,0.50293467918820289,4.5239701533059842,0.18938254593916953,-0.21313648020910284,0.029986019537964342,-0.4565518736374734,0.47862774495556648,-0.33676366782759021,-0.98194631095124552,1.6232031106804497,-1.04724828595396,-0.09778050093724866,0.10520814351856196,-2.9254112086431903,-1.7709564868531718,-0.81788285441000907,-0.21016897234498438,-15.333335570443039,0.043935522650764107,-1.0042350107909961,0.17234793710093685,-1.0281450224917268,0.9058980385193004,0.52474604681062786,-0.01217314840861683,0.50478709354147711,0.15102328927181535,-5.20569346430461,-2.0241917169157317,0.90402236347270648,1.4487303302061199,0.075142861975810549,1.272823225838567E-05,0.657564909039514],[0.039633281656794375,0.94178313872210573,1.6264519175413073,0.25522283345118341,6.2377629511834343,-3.0888395032730842,-0.83320770020738166,0.20466519464377087,1.4204054047205712,-6.8990370836397972,-0.92856709971316143,-0.057781887639790752,1.4776636956598084,1.0173339550863774,1.8130858372592824,0.044058320350316107,6.12984254326987,-0.56110591881470806,1.3341840000430951,1.1956272326774606,-1.809153085076068,2.7279508781221704,0.45955322800985365,2.8926723365055271,-0.30243546485638673,0.13680819319355209,-2.2987986029821488,-0.8425141627631737,0.79765462338965754,-2.1535398073699517,-0.75642673027409613,-1.5202882719763342,0.9940177394792733,1.9457530852685163,-2.4669120447200448,2.100272178644206,0.35701365587376138,30.56307713215606,-0.32244289694126527,2.5467780719832311,4.7552212807353706,-0.31457647215293594,-1.0306162440615474,-1.2943448373137909,-0.10188142269758987,3.446251008244964,-0.80343457108080374,2.5681808042828322,1.8820720212264195,1.0355970856264507,-2.4445055648904814,-0.019965085887478303,-0.20669603349009511,-8.6108295266671444,-3.0648579515877774,0.16891822927484165,0.019056008117071629,-0.77157037118689953,2.9815248274566573,0.8712699082415305,-0.50601127079592911,0.42428438279369929,0.72235122396364559,0.0017160245166873726],[0.76624095214502552,-5.0666155659109577,-6.4978793049411774,3.3471742449315087,-0.029686100213946513,-0.5181722944956294,1.1820060618873116,-2.3584658525523188,-0.66130029918332678,1.4427407731335504,0.094780994824341186,-2.3388335532895503,-0.068980559160623109,-1.4475164518029844,0.41060485219726944,0.45315576460787732,0.60287721263339444,-1.022019907956055,2.0328358603602825,-1.0499281351986578,-0.50989473838152655,0.20259264082263787,-0.13740005763271906,-3.453909488628482,-1.9713050921927242,-1.8710187704067347,-0.14631218492885589,0.4886329181363932,4.1037385475614077,2.1417182206682561,-0.48523022077430739,-0.58513896688408629,2.5690044770463016,0.62873929895993574,1.0029360872019144,0.07375106444798879,-0.25032415236390576,-1.2073491601801554,-0.4877030695541949,3.4121778943570709,-0.48121685068576303,-1.4561869768337328,-0.18722408985939715,2.0565089490152086,-0.59143123629370808,0.33788231761980686,-0.65051925254152809,-0.89371957476308161,0.518277944822509,1.3571480659827451,-0.46167589096059236,-0.98964526728974533,1.1756398526598444,-0.061442553398102034,1.5492692708283589,0.070249561129920021,-0.86459120209359008,-0.46240866299536382,0.16746415352791352,-0.74269757313523466,-0.25097448391927163,-0.20096399721439667,0.38889555275804694,-1.6324665765351512],[1.5844771796645545,-0.028194889524938642,5.1382652451081148,-2.1104911814561538,-3.0028877706251338,0.043264953320637137,-3.6494460944350124,0.50975547442703451,-4.8421670592827333,-2.0166307250030107,0.09858621898993658,-1.4859783140095653,0.0646238752897429,0.20470198504016732,0.11352106700872866,-4.1675664433560149,-3.8597173639537674,3.3337168810110844,0.88356381311080223,0.16522302963250446,2.7802439446108846,0.11327908239942058,1.5096246960094164,-0.12017622466206855,-1.1789081408520774,-0.070768545637669586,0.94476305979738617,0.0059025686945149763,0.054851977062923517,-5.6587691929438,-0.099681882487188067,0.17730138958686562,-0.048505497432922186,-0.83238276187760729,-0.16447447461637946,0.045553270549013633,0.912776384984072,-1.3377513172971476,-5.065873013558428,0.41503447828075424,0.038067204079361525,2.2186245715610013,20.053063520843804,-4.5672171185244466,0.5083811813081216,2.6546926480615647,3.5707147472791485,0.684451202411439,-0.16647435873819289,0.62128525609393326,-0.78637079881447847,2.2366902516735014,0.016921854798194746,3.0259766084384658,0.31658686563320326,0.58571251186054862,0.21413364156285997,1.7259100400261498,0.38626194379466405,-1.24427739402995,-0.21701847199232571,-2.1736507991378913,1.6392591519787225,-0.51679784876884316],[-0.50951994631919673,-0.40959475517509542,0.18565950880886417,0.094616156312158473,1.455525914355619,-2.0355215216525369,-0.0702872723936372,1.4528908565185592,1.8528688682968555,-0.60561970458851311,-0.059076119023855921,0.0041871621417036526,1.6466158836810225,-0.17992994082353556,-1.2508860676221896,3.7629597216151449,0.34847827111667795,1.0737882999189314,-0.319091139803215,2.6287659005467345,0.2763225831049263,-2.3108354797499384,0.0769213039278998,1.7575473917258058,0.14917268039706882,-0.99084873820312347,-1.1267596229924528,-2.1422277123382472,0.16411552573436924,0.10118008805051446,0.65508760054467641,-0.0054931285708121891,0.39816322725034803,0.79797221756995484,-0.48852209925578066,0.99961749486489548,-0.83274715603561988,-1.2134373449067792,2.1232702767533356,0.1669083146803263,-3.3965740783351284,3.4491014236480551,-1.370370950222418,2.8137869309942354,2.149149830602509,0.16935000718088297,1.0232686472638954,-0.11557052223674211,-0.40058341237161421,0.038763961548107725,0.093283385249640638,-0.66163577043013777,0.59867466823804782,0.38127876715847853,0.10461324374966537,-0.35914760191666856,1.1520841142106817,1.2408235754781225,1.3723231233311934,-0.1386967766008706,2.7569277638883527,8.4596824240569486,-1.7021378650488548,0.19201993943334861],[0.16781871089988037,-34.796526242650984,-1.1291326020496939,0.078127608080172731,0.68955226601992026,2.0500272159355521,-0.61475002589149763,0.36356148489709328,2.8851771430067812,0.2230186102614915,-6.7674333190048417,3.1907939125851561,-1.2351938804397304,2.8330758674335157,-0.7997234702095668,-0.54212904132041573,0.80940872792153984,0.4387732526022583,0.46365970459241568,0.83717563342173562,-1.2394096500331928,0.28584790910593416,0.78616151698000769,-0.8802405708017299,4.4330569631340726,-0.50226984728610158,0.30036380536389484,-1.081157434151562,0.53032915733514341,-0.671463091405281,-0.022828912139862781,0.016362547857777715,0.094081489763653048,-1.3342724497208769,0.093168401422238936,-2.0265476984923616,-1.1016314541000392,-0.15847106316459736,-0.085784782104641077,0.75219216887489337,0.86172520261085939,1.6440611151970024,-0.0358316003925529,3.5621824125513113,-0.3931568129001396,1.6000007543084784,-0.28774704633214543,-0.41750815262147783,1.24583286776722,1.8319311980667341,1.2451785407464162,1.8898822496459615,-2.0175711645966761,-0.76132256178717017,6.161925897645,-2.4150907462314679,1.1239632765695791,0.19945864596900079,-1.5380468104860752,-0.33927331915591852,1.13113869673048,0.059109493078444916,-0.90016091962546152,-0.1430950079446128],[-3.40838438266808,-1.2234698392036714,-0.0052253266797715608,-2.9841030478359354,-2.9272541519648052,0.49281578101404488,-11.757830427062508,-0.081085002481704291,0.36610675967298267,1.5331229804231592,0.029833487748705045,2.4386108500136734,-7.727164568319453,-0.45183042753068881,1.0358670791945741,-0.43764840068556787,-0.77125428761731607,-1.5037776924268851,-0.842534817293827,-0.14109523121854062,1.4441879562030862,-2.1692011742299382,1.0161030065899084,-0.16793199336988457,0.48668867133424742,-1.0803290100504,1.0984182051236007,-0.58315466602255439,6.288070320859851,-0.56814290369100517,0.64277038135402154,-4.4562816645011605,-0.85067320600453211,-2.3791369444103441,1.0733422772926242,-1.690483531978177,0.013834623825329434,-2.381812126466456,1.2093968499045606,0.12121934039708211,0.17685541137379846,-3.7447882328760613,-0.33378525857976671,-0.6902094763332125,0.78729392760214878,-0.23345674675035977,0.65255471015506483,1.4903182710300742,0.35327910302667181,0.0628211468236247,1.3294641352778656,4.198067588734256,-3.1994818841406163,0.335410287735412,-0.36649855686410548,0.071567346066423662,-1.5474652146129519,1.27768693621957,1.0421492150749443,0.47699780103740075,-0.35092989301189415,-0.96321686098951176,3.7411934375447622,-1.5216266858582577],[-1.952848286503539,2.6040268075520512,6.1240922598032608,-0.11452741072178477,-0.0241016423325516,-0.53531006933914371,-1.4654184770073493,-0.15063233954452845,-0.49916325204867273,2.6839469416008086,3.5222363791584561,-2.0476082762643548,1.516662176554084,0.4999455683332702,-1.1907556843139977,-0.79813693832078669,-0.46428581625053716,0.30752988268582343,0.866892791034426,-0.070498987732291657,0.59485114362325,0.41934886847062908,0.28280244361237039,0.56821653624997626,-0.064007974078255772,-0.0084856802415568811,1.0430778640580725,-8.7068688002082233,-1.5634191354833404,1.450916073765572,-1.7553271244847539,0.21566523856575545,0.49292278949598561,-0.2932912896973533,-0.46709444323028038,4.865654355942123,-0.854421683264346,0.11858247085199625,-0.055746005664314723,-2.9140600626239239,-1.6363259129238379,-0.644862192359126,2.0412240667016786,0.30035401242561105,0.10795408993979655,-7.6822030340939556,1.7615504329987537,-0.032214271915291449,-0.25144927658066973,-2.8246322984728556,1.543803457815722,2.85956142139173,0.18758073291036437,27.423874449025188,-3.7556434251593789,0.17388660815593116,-0.696600026920041,1.8395964438298034,-0.62048853395192394,0.23864574648355763,-0.675779422498949,3.0466494302376823,-0.25401557632259431,0.3370992527625557],[-0.74729253308430621,0.24596739090853192,-7.4288299395388,0.34810266570365883,0.37036612307255723,0.64482180737632788,2.4436302949678739,1.5200971746884144,1.1786644881503279,-2.7365964080598104,-0.0860297384114645,2.0902829137139385,-0.44578466828799668,-0.64453016377747541,-0.68848503610273037,0.71938076243734383,-0.37300637422390825,0.71300162706184789,-3.6111265666603023,-0.0024886440794029377,-1.5272922065710868,-1.1096076217158206,-0.2892024781263608,0.38066668246822971,-0.18357906028618712,0.53468761487945027,0.42796996973357948,0.25184209124401113,11.966568936418302,-1.5520911102785893,3.5970601759940384,1.821451368476765,0.826637520766473,-0.0957474436853295,-2.0458706145050183,0.728194467174805,0.23452971303314682,0.027804900979220414,1.1181003728624324,0.013100810997656153,-1.0720032888357469,1.7716221432176853,0.47643672685186783,-1.0433056960407008,0.555627135250191,-1.6166770049421801,0.12642417953084889,-0.53909235270445488,0.303533599038593,-3.0788604803884532,-4.0718765940338413,-1.0654237737245067,-0.727991857087446,-1.8639763622897929,-1.2756157017986107,3.0179062665158263,4.608707059063974,0.45504992768589586,-0.0018921374694676474,3.6357485324474617,-3.9744319068775296,-0.082141861464043883,-0.14407102755161449,0.1686441870016635]],[[0.076658827913704791,0.63278647795261378,-1.339374400432598,-0.10222684909387596,0.2248096738551936,0.24375354348489103,0.59697203469148208,-5.0433767206399329,2.8487874549910406,-0.5610894712093053,-1.6293071995589084,-0.32757421938147663,0.88886200285906058,-0.29178040656967591],[-6.3399390425149154,-0.02907174278623742,-0.24045698587254916,0.40370067584722835,0.17913698189642957,-0.99988949273882155,-0.25011545224312137,1.8160355221162761,-0.22851892365663798,8.0527225025614833,1.5010687898984092,4.5526719256703663,2.8800838765696888,0.53451355027592429],[0.020361205635554078,-1.4174712042571493,-2.3561864878889702,0.0786198408151524,1.3991226143472368,-0.82599687067390359,1.3367304292490425,0.941731005264,48.600271404307037,-2.92383709114731,0.41891095543085805,-1.0944336429719965,-0.049112924854927784,-0.18796211467336277],[-2.262378141041721,-4.4151640458599477,-1.2417001983580545,-0.4328435069852497,1.1157154779783505,-0.15345486776726802,4.4473885597468312,-0.12132940736950276,-0.096068107686250015,0.079819909240201645,-7.0714178314454976,1.503075138234955,1.2395338206403552,-1.5464765183333689],[-1.5448478012723519,0.13133008197406493,0.62037868258015094,-0.38203833884205063,-1.1759292794250744,5.64998069444712,1.2007051245003515,0.63574255934771118,0.066262954693176446,0.1201853977726649,-0.66819082944284136,0.574958332173474,-0.010594860686591767,0.26980931701501526],[-0.0021195158797748283,3.0314533923120428,0.468322397734099,1.3886280721980517,0.42989656164838119,0.12401364572045837,0.094778140872999642,-0.13797344807091216,-7.366614818454277,0.624176594755681,-0.6993152666097272,1.1964690911738325,2.8337805957740771,1.0220979454694774],[5.0400284541260243,-0.17712620109635022,-1.36365922889551,-2.7877682828636536,1.0450213826037871,1.1185972764398491,-0.85984522319611245,0.21087411972668516,3.2611948288633461,0.20367847928874916,-0.25560694726148447,-3.2418056723871338,0.59509170949369838,1.7860335586723117],[-0.12156209440843668,0.36403003238108311,1.7234217535047269,-5.55323797472982,-4.9923001055320828,0.3459767991628705,-2.2724511037476232,0.2584346003057677,-0.028484922202523032,-2.0174852717248757,-3.9162398180368267,0.43803976256120125,0.23739942956931498,0.21145549601226643]]]}